{
  "features": [
    "factor_score",
    "strength",
    "pullback_volume_score",
    "turnover_crowding_score",
    "relative_strength_score",
    "volatility_contraction_score",
    "support_reclaim_score",
    "close_position_score",
    "limit_up_followthrough_score",
    "theme_heat_score",
    "amount_quality_score",
    "market_regime_score",
    "northbound_flow_score",
    "rsi_divergence_score",
    "macd_signal_score",
    "ma_alignment_score",
    "boll_squeeze_score",
    "kdj_oversold_score",
    "mfi_score",
    "shadow_quality_score",
    "pullback_speed_score",
    "intraday_reversal_score",
    "volume_climax_score",
    "sector_relative_score",
    "adx_trend_score",
    "obv_accumulation_score",
    "cmf_score",
    "gap_support_score",
    "factor_x_regime",
    "reclaim_x_close",
    "kdj_x_mfi",
    "vol_x_close",
    "shadow_x_intraday",
    "amount_x_regime"
  ],
  "means": [
    16.98740157480315,
    87.55118110236221,
    4.563779527559055,
    -0.11968503937007874,
    9.423622047244095,
    -0.047244094488188976,
    -4.725984251968504,
    -0.7433070866141732,
    -0.28346456692913385,
    4.053543307086614,
    -1.2724409448818899,
    -3.604724409448819,
    -5.368503937007874,
    0.03307086614173228,
    2.4346456692913385,
    -5.332283464566929,
    -0.5811023622047244,
    -0.14173228346456693,
    -0.8267716535433071,
    -4.132283464566929,
    7.294488188976378,
    0.6283464566929133,
    0.9448818897637795,
    0.4346456692913386,
    4.245669291338583,
    3.869291338582677,
    1.2614173228346457,
    0.9700787401574803,
    -59.59055118110236,
    -6.686614173228347,
    0.2031496062992126,
    19.171653543307087,
    -10.467716535433071,
    6.02992125984252
  ],
  "stds": [
    15.4424458107602,
    9.620605069957078,
    5.403726758499708,
    4.5894270716159875,
    3.6416327715708086,
    6.389778091493327,
    5.239510895584516,
    7.35908662758579,
    5.152321757503017,
    3.5834658645583892,
    4.267044140307362,
    2.4111897369705058,
    1.9014168272033098,
    2.8167959437415373,
    4.2626445148846885,
    3.668741806032809,
    2.8518741533195975,
    3.2349577014085766,
    2.219791038576494,
    5.807256957330778,
    3.7988665339511316,
    4.3789564362435645,
    2.425283769789162,
    0.9256092228931532,
    2.599114201182638,
    5.3627691725997675,
    4.121884120139406,
    2.1290756177097077,
    78.46192259017486,
    48.25817439173172,
    7.593490135779784,
    45.06534694963516,
    29.93273530463405,
    18.80393791460082
  ],
  "weights": [
    -0.37542462965829326,
    -3.33728465682102,
    1.027448372868913,
    0.13445256610781642,
    -0.9135487868262163,
    0.24111509759916547,
    1.1015323405041055,
    -1.974408670327671,
    0.49956120317630437,
    -0.07639349558937383,
    -0.14623847580678523,
    2.205880036707579,
    1.1079579200098197,
    -0.4173991108343762,
    1.1887889995140202,
    1.1409000700977794,
    -0.11833180529769699,
    0.754468435041723,
    -0.1415939715413178,
    -0.7621419150414023,
    -0.8054575969786955,
    0.9591324528447444,
    -0.8625025958560701,
    -1.0507126109870015,
    -0.13627529578468528,
    0.06472386451358991,
    -0.613965217275159,
    0.023030718879458206,
    1.004653282091696,
    0.8541570115720347,
    0.5280362627744632,
    0.8684965125464786,
    0.24352724082722768,
    1.1996840455392594
  ],
  "bias": 0.3247270590100272,
  "cv_folds": [
    {
      "top1": 35.13513513513514,
      "top2": 52.0,
      "days2": 25,
      "days3": 21
    },
    {
      "top1": 29.72972972972973,
      "top2": 35.41666666666667,
      "days2": 24,
      "days3": 20
    },
    {
      "top1": 45.94594594594595,
      "top2": 50.0,
      "days2": 27,
      "days3": 20
    },
    {
      "top1": 41.66666666666667,
      "top2": 62.5,
      "days2": 20,
      "days3": 16
    }
  ],
  "overall": {
    "top1": 38.095238095238095,
    "top2": 49.47916666666667,
    "days2": 96,
    "days3": 77
  },
  "objective": 55.697072072072075
}